#ifndef MODEL_DATA_H
#define MODEL_DATA_H

#include <Arduino.h>

const float layer_features_0_weight[216] PROGMEM = {
-0.109489,0.042261,-0.190809,-0.031864,-0.178719,-0.072590,0.040703,-0.126137,-0.001280,-0.030539,
-0.099206,-0.153966,-0.168062,-0.098696,0.051484,0.038013,-0.099816,0.029162,0.052699,-0.175846,
0.047853,-0.163561,0.018624,-0.042188,-0.022245,-0.022106,0.072228,-0.082465,0.062068,-0.099195,
0.078605,-0.109226,-0.148426,0.163963,0.077501,0.000538,-0.157462,0.067275,-0.046669,-0.036589,
0.206778,0.024226,0.038425,0.066561,-0.152066,-0.150056,-0.038527,-0.072683,0.073736,-0.083217,
0.195975,-0.114072,-0.033981,0.187521,0.004653,-0.074221,0.154708,-0.013830,-0.006987,-0.054420,
0.028778,0.004486,-0.008376,-0.099796,-0.154101,0.167265,0.166266,0.195738,0.160733,0.023377,
0.188593,0.182949,0.043534,-0.006160,0.058107,0.021486,-0.075865,0.116168,-0.138745,0.106599,
0.020481,-0.013355,-0.147679,0.085769,-0.105810,-0.100355,0.028751,-0.073612,-0.101043,0.104357,
0.115144,0.194798,-0.009965,-0.114645,0.199931,0.143706,-0.161970,-0.136025,0.008643,0.208759,
0.093264,0.068821,0.173180,0.173354,-0.155576,0.016339,-0.118917,-0.099935,-0.047932,-0.001011,
0.055344,-0.063923,-0.144833,0.153775,0.190972,-0.123104,-0.060594,-0.094006,-0.148781,-0.082630,
0.134974,0.093468,0.000922,0.097523,0.044163,-0.018619,0.164817,0.019302,0.104016,-0.121981,
-0.136659,0.014037,-0.151599,-0.156683,0.084536,0.097221,-0.113487,0.048294,-0.109423,-0.127952,
-0.014619,-0.042778,-0.042628,-0.001899,-0.062156,-0.072589,-0.016059,0.181935,-0.122287,-0.012061,
-0.108206,0.116262,0.258574,-0.109133,-0.142378,0.031365,-0.039822,-0.029568,0.047548,0.010221,
0.026982,0.216019,0.039652,-0.024627,-0.151944,-0.123663,-0.070804,-0.043939,-0.089478,0.014819,
0.154796,-0.147891,0.008861,0.105226,0.069373,-0.022854,0.095287,-0.105655,0.149667,0.160419,
0.138960,0.083363,0.126188,0.207596,-0.163052,0.143050,0.096910,0.211846,-0.116161,0.056792,
0.122719,0.031836,-0.094839,-0.016893,-0.098171,0.100156,0.038493,0.117954,0.056434,0.033424,
0.064073,-0.079935,-0.037133,0.027606,-0.133180,0.047929,-0.079288,-0.103483,-0.096854,0.093092,
0.076585,-0.130237,0.088946,0.003976,0.145989,-0.101022,};

const float layer_features_0_bias[8] PROGMEM = {
-0.107159,0.130478,0.035745,0.154976,0.235561,0.023730,-0.080787,0.208839,};

const float layer_features_3_weight[1152] PROGMEM = {
0.104635,-0.032026,-0.047392,-0.092187,-0.094374,-0.017613,0.084761,0.117634,0.068215,-0.058436,
0.145920,0.130858,0.088647,0.043292,0.030668,0.086420,-0.059517,0.155516,-0.027531,-0.005334,
0.128987,0.025448,-0.029055,-0.100743,-0.088657,0.094843,-0.020988,-0.000876,0.073987,0.112717,
-0.063757,0.071423,-0.069571,0.109269,-0.091198,0.122030,0.036487,-0.039853,0.072175,-0.025751,
0.155119,-0.010445,-0.042265,0.177281,0.099726,-0.139091,0.007867,-0.105109,-0.048214,0.009561,
-0.076544,-0.179338,-0.120756,-0.152822,0.063720,-0.097101,0.043041,0.082273,0.095758,0.102246,
-0.098231,-0.010908,0.023686,0.147673,-0.062271,0.126533,0.100370,0.003659,-0.024730,-0.035961,
-0.022125,-0.012276,0.026812,0.097905,-0.112381,-0.087897,0.037654,0.086587,-0.076401,-0.004257,
0.001674,0.002991,0.034482,0.047499,-0.079668,0.085860,0.017696,-0.088239,0.007462,0.034962,
0.104145,0.121910,0.086744,-0.074380,0.113950,0.065980,-0.083961,0.102068,0.015107,0.007369,
0.027983,0.128879,0.056835,0.083606,0.029050,-0.069085,0.035253,-0.025784,0.043526,0.063396,
0.143389,0.010085,0.075893,0.081801,0.021543,0.166403,-0.024168,-0.006281,-0.194071,-0.183508,
-0.220598,-0.073081,-0.051862,-0.199888,-0.111635,-0.108606,-0.072425,0.010950,0.053485,-0.032014,
0.086111,-0.025128,-0.085863,0.020526,0.103717,-0.000641,-0.030172,-0.063891,0.005641,0.063162,
0.052334,0.096612,0.095454,-0.011368,-0.028248,0.115211,0.079599,0.041648,-0.105936,-0.059462,
-0.059721,-0.023833,-0.095342,-0.030477,0.113369,0.103580,0.117502,0.099993,0.033943,0.158170,
0.172152,0.031859,-0.017210,-0.087392,-0.078573,0.051653,-0.088970,-0.017976,0.053013,-0.058049,
-0.024542,-0.034405,0.058613,-0.052802,0.152461,0.047859,0.091040,0.098910,-0.025281,0.091832,
-0.003814,0.162740,0.120571,0.017485,0.073709,0.166595,0.021449,-0.001118,0.015506,-0.049915,
-0.014374,0.022760,-0.136914,-0.040043,-0.012033,-0.162908,0.009856,-0.071818,0.065680,-0.002614,
0.119016,0.074027,0.037349,-0.101651,-0.036334,-0.011226,-0.064222,-0.043795,0.075847,0.003344,
0.119294,0.088937,0.025225,0.003954,0.025156,0.159554,0.078520,0.029956,0.049557,0.027698,
-0.071324,-0.050377,0.103575,-0.072897,-0.039522,0.032596,0.134038,0.001896,0.120912,-0.022702,
-0.008419,0.125810,0.014446,-0.074686,0.013212,0.052333,0.088161,0.095591,0.060419,0.107975,
0.071022,0.120268,-0.024393,0.013341,0.052026,0.045166,-0.098410,0.045513,-0.000126,-0.092667,
-0.006789,0.125250,-0.042446,-0.015616,0.011505,0.052884,-0.017654,0.038287,0.057899,0.004193,
0.152430,-0.164978,-0.025351,-0.001226,-0.232250,-0.227596,-0.221826,-0.011340,-0.060466,-0.097841,
-0.071442,-0.056171,-0.003865,0.124429,0.042508,-0.017970,0.027934,0.095569,0.111207,-0.054894,
0.023648,0.072343,-0.051882,-0.025865,-0.068771,-0.031322,0.000962,0.048455,-0.013186,0.109001,
0.106789,0.020021,0.031870,-0.020874,0.050425,0.037133,0.036352,-0.013453,-0.008984,0.082375,
-0.061911,-0.065239,-0.006283,0.093648,0.124215,-0.070935,0.026057,-0.065812,0.024651,0.129000,
0.038709,0.045755,-0.087302,-0.088439,0.097565,0.133153,0.081203,-0.020080,0.048591,0.002160,
0.131889,0.035571,0.048240,0.076414,0.048187,-0.036449,-0.030294,0.058237,0.142007,0.152002,
-0.060519,-0.055781,0.082151,0.012880,-0.059479,-0.053052,-0.141143,-0.050093,-0.215135,-0.140968,
-0.078977,-0.041575,0.102010,0.048275,-0.071676,0.011063,-0.035207,0.079936,0.120880,-0.084594,
-0.027377,0.072000,-0.034190,0.138362,-0.030304,-0.050998,0.024204,0.003414,0.016542,0.065976,
0.028054,0.062597,-0.054962,-0.067753,-0.065685,0.100582,-0.044377,0.015419,0.058301,0.038003,
-0.071870,0.112102,0.070297,0.095463,0.042926,-0.084877,-0.070926,-0.058409,-0.079703,0.113312,
0.065822,0.141394,0.015028,-0.014405,-0.026364,-0.069464,0.030551,-0.038415,-0.052316,0.019804,
0.077161,0.095625,0.091861,0.053253,0.069705,0.044231,0.023381,-0.058784,-0.016061,0.008070,
-0.009133,0.027434,0.072675,0.028193,0.021203,-0.070205,-0.189729,-0.086614,-0.209024,-0.185879,
-0.148444,-0.127759,-0.117420,-0.069148,-0.082520,-0.084443,0.041470,-0.027632,0.117189,0.033043,
0.061403,0.124149,-0.001661,0.052347,-0.040965,-0.060332,-0.063177,-0.063601,0.154412,0.094535,
0.085325,-0.034130,-0.114464,0.083332,0.050482,-0.107239,0.072754,0.032352,0.000957,-0.111368,
-0.024901,-0.052613,-0.100154,-0.021657,0.103028,0.038782,-0.036530,-0.109209,0.100858,0.078435,
-0.115754,0.102896,-0.077447,-0.107803,-0.000613,-0.015678,0.040323,-0.052251,0.046817,-0.106145,
-0.050376,0.071819,-0.019818,-0.111727,0.086269,-0.076684,-0.089114,-0.016954,0.066235,-0.008990,
-0.092980,0.001962,0.075739,0.039484,0.029023,-0.115630,-0.097993,-0.018359,0.005097,0.070004,
0.012827,-0.093169,0.073976,-0.117504,0.106798,0.010197,0.091619,0.002819,0.090949,0.099250,
0.062015,0.030708,0.089726,-0.105029,-0.115691,0.045830,0.066720,-0.040129,-0.081233,-0.128668,
-0.003499,-0.000137,0.100914,-0.069925,0.011606,0.068159,-0.024869,-0.052480,-0.001998,-0.040023,
-0.019291,0.078954,-0.046078,0.002571,0.085555,0.137802,-0.055203,0.089530,0.073113,0.133706,
0.048608,0.155491,-0.075156,-0.079402,0.099941,0.131681,0.068513,0.065355,-0.002629,0.075629,
-0.026909,-0.028013,-0.082002,0.046745,-0.063141,-0.025417,0.097802,-0.021526,-0.071603,-0.033047,
0.020998,0.053926,0.044448,0.086527,-0.014694,0.016999,-0.001435,0.087317,0.106249,-0.139073,
-0.141609,0.001818,-0.183061,-0.145086,-0.082728,-0.177421,-0.026315,0.002523,0.105044,-0.072834,
0.104313,-0.020560,-0.077892,-0.089568,0.026230,-0.061276,0.044692,0.096781,0.083593,0.150621,
0.133769,0.119489,0.062926,0.036236,0.109799,0.015093,0.072739,-0.101206,-0.090431,-0.068054,
0.012761,0.011957,0.075286,-0.053214,-0.039405,-0.026670,-0.027966,0.015975,0.082521,0.121398,
0.071147,-0.073354,0.128460,-0.067683,-0.043059,-0.086435,0.081550,0.054192,0.006871,0.066822,
0.056676,-0.087268,0.034280,0.000409,0.080803,0.116961,-0.026640,0.096493,0.051515,0.122096,
0.069537,0.018446,0.023079,-0.015033,-0.040080,-0.027432,0.016313,0.144818,0.167538,0.168708,
0.007440,-0.178666,-0.140510,-0.063505,-0.029569,-0.153694,-0.102245,-0.075372,-0.129620,0.013182,
0.052776,0.035965,-0.103035,0.041104,0.008315,0.106978,0.008213,0.109924,-0.045390,-0.073017,
-0.023790,0.093923,0.154993,0.070946,0.152584,0.083654,0.011744,0.053621,-0.117011,-0.028643,
-0.034156,-0.024682,0.053782,-0.007123,-0.048130,0.065366,-0.004665,-0.074954,0.085361,-0.065525,
0.062549,-0.041373,0.123483,0.075316,0.084249,0.101396,0.019082,-0.065469,-0.036236,0.120784,
-0.044103,0.019485,-0.033112,0.061780,-0.012515,-0.037903,-0.011797,-0.008403,0.085952,-0.052004,
-0.013007,0.061037,-0.012259,0.080408,-0.020386,0.101712,0.032084,0.101116,-0.061714,0.056821,
0.032091,0.031900,0.023836,-0.069523,-0.157571,-0.152646,-0.069832,-0.129520,-0.036648,-0.185642,
0.036500,-0.072044,0.080572,0.135884,0.073906,-0.050125,-0.033303,-0.039146,0.099082,0.079347,
0.022279,0.049412,-0.064107,0.005277,0.042826,0.030254,0.148596,0.130393,0.030077,0.020617,
0.026509,0.020249,0.089463,-0.004312,0.026699,-0.060008,-0.014751,0.057098,0.017382,0.008566,
-0.065618,-0.027580,0.050828,-0.022033,0.065694,0.084024,0.008320,-0.083980,-0.031502,-0.014372,
0.099403,0.047104,0.089925,0.082196,0.022885,-0.052515,-0.074510,0.088779,-0.085246,0.013570,
0.069948,0.028922,0.009188,-0.081196,0.086405,0.105196,0.044663,0.141370,0.123670,-0.010381,
-0.022829,0.034443,0.010237,0.061518,-0.032626,-0.102400,-0.089190,0.024488,-0.108477,0.004679,
-0.169364,-0.051424,-0.100956,-0.052975,-0.112519,0.103477,0.043655,0.051155,-0.040806,0.072585,
-0.055625,-0.111412,-0.062081,-0.000611,-0.015524,0.062301,0.053563,-0.060589,-0.006873,-0.074364,
-0.036939,0.045216,0.072123,0.050220,0.073896,0.105281,-0.086549,0.102972,-0.047159,0.006797,
0.029398,0.126296,-0.019445,0.040225,-0.048415,0.004332,0.047308,-0.029858,-0.015104,0.028928,
-0.076832,0.110333,-0.057358,-0.085656,-0.047989,0.010636,0.081948,-0.029526,-0.015888,-0.018767,
-0.082445,0.012380,0.099794,0.027032,-0.016797,0.048148,0.053438,0.109610,0.189271,0.079869,
0.089585,0.121844,0.071909,0.167479,0.049289,0.103250,0.019368,-0.020660,0.055798,-0.115625,
-0.154315,-0.122374,-0.032366,-0.071033,-0.116566,0.021104,0.087957,0.109205,-0.085585,0.113201,
0.030295,-0.026094,0.010762,-0.005362,0.053003,0.132680,0.074199,-0.063610,-0.021759,0.010125,
0.109186,0.052769,0.118832,0.026894,0.003924,0.039898,-0.070106,-0.048825,0.012493,-0.013555,
0.038105,-0.059804,0.029854,-0.045737,0.071354,0.158562,-0.004422,-0.013135,0.080903,0.148059,
0.072844,0.103665,-0.030939,0.068905,0.081961,-0.047295,-0.045190,-0.009112,0.108390,-0.050528,
0.110639,0.077927,0.145323,-0.029424,0.098450,0.141712,-0.053466,0.096032,-0.030879,0.100929,
0.023157,0.050705,0.141111,0.087928,0.154468,0.177900,0.060988,0.062480,0.022667,-0.044210,
-0.148104,-0.185626,-0.129361,-0.125694,-0.072402,-0.156628,0.040272,0.048209,0.062223,-0.002741,
-0.089786,-0.106571,0.053185,-0.103956,0.121179,0.066507,0.104081,-0.019456,0.151508,0.137693,
0.109626,-0.050380,0.113711,0.025556,0.116408,0.017549,-0.063293,-0.002384,-0.044434,0.082331,
0.023809,-0.072715,-0.043568,0.083500,-0.062226,0.128143,0.097944,0.032989,0.005106,0.065236,
0.065857,0.113688,-0.004331,0.110837,0.080574,0.116331,-0.052833,0.043717,-0.013519,-0.062882,
0.027138,0.005702,0.122191,-0.003364,-0.011157,-0.055765,0.031221,0.092265,0.106161,0.112311,
0.038135,-0.026839,0.160450,0.033448,0.056764,0.102410,0.166971,0.035206,0.063856,0.101852,
-0.048736,-0.114707,-0.190154,-0.087214,-0.083785,-0.054232,0.013156,-0.177732,-0.176680,-0.032876,
-0.032663,0.042056,0.052992,-0.082159,0.006902,0.100957,-0.080146,-0.071772,0.095334,0.064230,
0.025045,0.148524,-0.001288,0.127419,0.011258,0.088004,0.126439,0.153122,-0.041527,0.066532,
0.093405,-0.097415,-0.101196,0.018165,0.108214,-0.042467,0.012977,0.148904,0.102838,0.074312,
0.075253,0.073222,-0.025000,0.020248,0.053994,-0.021147,0.073976,-0.033229,-0.047872,0.122351,
0.016899,0.117336,0.069998,0.073550,0.037619,0.002005,0.092489,0.110015,-0.003493,0.016510,
0.056380,-0.033444,-0.045543,-0.077597,0.132328,-0.024474,0.082207,0.030462,0.000529,-0.029670,
-0.037828,0.142879,0.018090,-0.176507,-0.055481,0.007964,-0.076113,-0.205278,-0.183279,-0.171183,
-0.196740,-0.150926,0.112715,-0.000513,0.114917,0.032150,-0.004427,0.124730,0.041326,0.119658,
0.047674,0.120310,0.002132,0.152195,-0.004740,0.135522,0.087955,0.010222,0.020988,0.057828,
-0.020395,0.113966,-0.056958,-0.002351,0.029716,-0.071604,0.044656,0.048433,0.006618,0.106382,
0.033494,0.011782,0.079107,-0.052250,0.036051,-0.020649,-0.025154,0.053023,0.039006,-0.056301,
0.029028,0.105811,0.034425,0.062874,0.039080,0.137928,0.114496,-0.038494,0.120188,0.018808,
-0.026270,-0.085130,-0.070229,-0.096184,0.062110,0.019698,-0.045177,0.137552,-0.035876,0.080623,
0.049643,-0.002160,-0.036325,0.023767,-0.018393,-0.228420,-0.244987,-0.124551,-0.092930,0.002142,
-0.139960,-0.223480,-0.190372,-0.183540,-0.092762,0.060419,-0.066899,0.105767,0.048032,-0.103663,
0.073679,0.058582,-0.073767,-0.013497,-0.019076,-0.023784,-0.022392,-0.064602,0.101267,-0.059540,
-0.002239,0.059221,};

const float layer_features_3_bias[16] PROGMEM = {
0.123448,0.034867,0.035829,-0.044446,-0.004496,-0.022735,-0.129889,0.158344,-0.029294,0.049683,
-0.010783,0.053867,0.100641,-0.066626,0.110025,-0.071521,};

const float layer_features_6_weight[4608] PROGMEM = {
0.092667,0.025334,-0.034786,-0.016616,0.017208,0.011172,0.091521,0.010637,0.050396,-0.020737,
-0.041841,0.069808,-0.014752,-0.003831,-0.006097,0.052477,-0.030602,-0.013249,-0.001908,-0.010398,
-0.004551,0.104211,0.051972,-0.025057,0.033234,0.062422,-0.032348,-0.004905,0.080741,0.071703,
0.094260,0.059878,0.039842,-0.059126,-0.066443,-0.010127,-0.010288,0.017356,0.009646,-0.044307,
0.019994,-0.045184,0.014949,0.100752,0.092780,0.065358,0.058713,0.047842,0.091803,0.055728,
-0.067402,-0.044504,0.039963,0.029489,0.019891,0.078838,-0.001349,-0.071138,-0.042522,0.087783,
0.089450,-0.051675,-0.038210,0.028052,0.005650,-0.024867,-0.010678,0.111139,0.051583,0.076585,
0.068764,0.081240,-0.047851,0.017175,-0.048700,-0.025465,0.070601,0.060525,0.092618,0.108763,
0.013387,0.044125,0.097765,0.072294,0.062197,0.005763,-0.046407,0.029345,-0.006025,-0.037475,
-0.030512,0.066191,0.053919,0.005684,0.075460,0.004180,0.009065,0.059527,-0.056570,0.033627,
0.108002,0.105212,0.066297,-0.025670,0.024796,0.109010,0.002491,-0.033012,0.078136,-0.005692,
0.104647,0.004251,-0.030579,0.019123,0.118615,-0.045455,0.029838,0.015856,0.098663,0.061671,
-0.036469,0.043880,0.094937,0.025715,-0.025895,0.066063,0.074509,0.061163,-0.033144,0.072855,
-0.041745,0.016976,0.108064,0.081027,-0.043100,0.036229,-0.008395,-0.008624,0.025257,-0.040342,
0.087477,-0.003409,0.069395,0.051544,0.054648,0.017332,0.053553,-0.062717,0.069551,0.062126,
-0.059349,-0.064189,0.006343,-0.081605,0.054609,0.052676,-0.067930,-0.042944,0.056997,0.047607,
0.050093,0.058521,0.070156,0.065952,-0.041477,0.044265,-0.032171,0.088583,-0.036479,-0.040513,
0.004625,0.040068,0.040898,0.030989,0.023141,-0.059524,-0.038562,-0.034736,-0.094191,0.056926,
-0.051165,-0.053330,-0.085740,0.056611,-0.012062,0.044347,0.034920,0.033568,-0.001059,-0.080230,
-0.052366,-0.010828,-0.097184,0.036861,0.000953,-0.033577,-0.001343,-0.016002,-0.020453,-0.027834,
0.006868,-0.080228,0.013489,-0.065475,-0.038561,0.071776,0.032926,-0.058627,0.041841,-0.043000,
0.012593,-0.031045,-0.028231,-0.040501,-0.048550,-0.005725,0.016470,-0.070614,0.019067,0.042813,
-0.082783,0.033707,0.020870,0.070086,0.046500,-0.022427,-0.065433,0.061424,-0.043307,0.020808,
-0.031361,-0.007209,0.043480,0.018975,0.061113,-0.067382,0.038864,-0.032533,0.051331,-0.029355,
-0.006592,-0.050342,-0.054325,-0.001117,-0.065037,-0.076051,-0.066643,0.049139,-0.051716,-0.023292,
-0.002450,0.015033,0.022723,-0.029162,0.015558,0.004453,-0.015594,0.016753,0.021670,-0.088927,
-0.027806,-0.058066,-0.054969,0.074696,0.056474,-0.077727,-0.018267,-0.006884,0.004170,-0.028203,
-0.033491,-0.093908,0.069798,0.046982,-0.026966,0.061027,-0.066210,0.000976,0.065907,-0.066475,
-0.077432,0.013159,0.018470,0.006145,-0.013722,-0.047427,0.039995,-0.098008,0.052004,0.000403,
-0.053493,0.041685,-0.076774,0.025182,0.067750,-0.031673,-0.016353,-0.049537,-0.060747,0.008978,
0.008840,-0.072748,0.070952,-0.051579,0.075932,-0.040127,0.074239,0.030330,-0.002353,-0.063693,
-0.076638,-0.049561,0.022505,0.046722,-0.052313,0.080560,-0.027620,0.042840,-0.028097,0.068521,
0.021290,0.034581,-0.039338,-0.050330,-0.027870,-0.039180,-0.043692,0.050319,0.015911,0.080304,
-0.034057,-0.067882,0.004189,0.009711,-0.063681,0.004002,-0.048366,0.009602,-0.049528,0.068472,
0.032549,-0.033724,0.005105,-0.046631,-0.044764,0.013686,-0.061407,0.048110,-0.019660,-0.040892,
0.081864,0.037608,0.053305,0.050953,0.053448,0.013189,-0.016352,-0.049031,-0.084003,-0.027617,
-0.032815,-0.016060,0.018370,-0.064614,0.075932,-0.028791,-0.041098,-0.054108,-0.052324,0.066028,
-0.029965,0.044454,-0.039316,-0.070798,0.060078,-0.054877,0.068405,0.023500,-0.021590,-0.042752,
-0.069432,0.040421,-0.083197,0.012729,0.020050,-0.047235,0.061366,0.035905,-0.030317,0.058024,
0.002082,0.016455,-0.083242,0.035969,-0.080433,0.068427,-0.071060,-0.065752,0.029036,-0.062764,
-0.024048,-0.037619,-0.021129,0.022714,-0.008577,-0.021088,-0.059552,-0.045558,-0.043370,0.013841,
-0.062582,0.036855,-0.031564,0.038527,-0.033319,0.006565,0.070513,-0.030593,0.007384,0.030285,
-0.068952,0.015017,0.056944,0.037990,-0.009600,0.067752,-0.067160,-0.016967,0.055181,-0.064793,
0.003841,-0.083500,-0.006847,0.014631,0.038714,-0.042494,-0.046297,-0.088545,0.032171,0.041665,
-0.002861,0.059005,0.035432,0.048444,-0.016938,0.006432,-0.005047,-0.077661,0.065265,0.043875,
-0.089602,0.013549,-0.058471,-0.047923,-0.049648,0.027199,0.044034,0.058310,0.067675,-0.006838,
0.071911,0.029663,0.042408,0.020141,0.042152,-0.020018,0.069339,0.023089,-0.058073,-0.066264,
0.019142,-0.084271,0.064566,0.071871,0.057707,0.069793,0.040999,0.062498,0.061614,0.092120,
0.037286,0.014198,0.036718,-0.025344,-0.041333,0.098208,-0.032556,0.036189,-0.023555,-0.058742,
-0.042385,0.047872,-0.080400,0.031790,-0.037919,0.059764,-0.069341,-0.051793,-0.093467,0.047893,
-0.070701,0.050376,-0.045945,0.005072,-0.039391,0.068027,0.035149,0.034785,0.083953,-0.016451,
0.062454,-0.009063,-0.047746,0.000467,-0.066968,-0.062925,0.031805,0.085683,-0.004367,0.071684,
0.070692,-0.058661,-0.012470,-0.026901,0.036939,0.053991,0.076921,0.026127,-0.005883,-0.001419,
0.075517,0.015339,-0.002166,-0.007762,-0.064921,-0.077286,0.044960,-0.065159,0.004826,-0.000141,
-0.069600,-0.029176,-0.022358,-0.079269,0.055723,-0.023310,-0.054543,-0.078307,-0.089083,-0.053150,
-0.026047,0.040439,-0.026835,-0.029091,-0.000635,0.033852,0.074063,0.062040,-0.019005,0.019456,
-0.037799,-0.051197,0.082075,0.027663,-0.033635,-0.056380,-0.066023,0.093094,0.086618,0.037196,
0.024884,0.100066,0.078834,0.083813,0.105127,0.109564,0.050856,-0.054762,-0.045554,-0.008066,
0.062473,0.049253,-0.002768,0.024093,0.021319,0.026439,-0.003214,0.110436,-0.012501,-0.050510,
0.014611,0.069650,0.046744,-0.001853,-0.042337,-0.063146,0.040499,-0.014436,0.078561,0.036440,
-0.024578,0.048770,-0.058932,0.106679,0.020320,-0.032843,-0.024142,0.047600,0.041486,-0.051844,
0.081324,0.061022,0.074879,-0.053159,-0.056566,0.037620,0.015730,0.008978,0.077038,0.035617,
-0.005226,0.056595,0.045401,-0.049715,0.073238,0.091891,0.049713,0.090935,0.081706,0.096156,
-0.034902,0.007680,0.050791,0.001902,-0.010200,0.084046,-0.037381,-0.010085,0.073277,0.098132,
-0.025399,0.040940,0.002526,0.021731,0.050549,0.108413,0.105393,0.010752,-0.044462,0.055668,
0.011113,-0.049225,0.064659,-0.040493,-0.010656,0.065699,-0.026957,-0.018678,0.048389,-0.006870,
0.090641,0.015732,-0.046615,0.072355,-0.056934,-0.054812,0.000644,-0.054003,0.102511,0.039240,
0.072620,0.104257,0.027730,0.074947,0.062540,0.028245,-0.031623,-0.014795,-0.039203,0.077877,
-0.029885,-0.030876,0.094882,0.101915,-0.015523,-0.004639,-0.021938,0.046204,0.055801,-0.051649,
-0.050521,0.037485,0.021444,-0.061630,0.049504,0.101630,0.066335,-0.020271,-0.000633,0.042733,
0.023053,-0.015149,0.064237,-0.044241,0.031017,0.019211,-0.012839,0.075628,0.051470,0.088472,
0.002723,0.041645,-0.000620,-0.048488,-0.014832,0.006043,0.099688,-0.036320,0.026128,0.020802,
0.012142,0.038072,0.050816,-0.045323,-0.020036,0.004752,0.055212,-0.005918,-0.035155,-0.057170,
0.001161,-0.094487,-0.066403,0.011376,0.032022,-0.027092,0.063965,0.053984,-0.053476,0.036768,
-0.086588,0.039957,0.030456,0.007077,0.005628,-0.033735,-0.052099,0.029161,-0.004776,-0.000837,
-0.094545,0.059110,-0.037466,0.046218,-0.004429,0.025518,0.048382,0.005778,-0.085660,-0.046920,
0.031850,-0.070986,-0.049588,0.018298,-0.035490,-0.051148,-0.050895,0.026997,0.020998,-0.067505,
-0.044430,0.042410,-0.064231,0.064641,-0.079770,-0.035274,0.079200,0.006463,0.057121,-0.032499,
0.036266,-0.050406,0.031058,-0.026133,0.066502,0.034475,0.056346,-0.075571,-0.095270,0.067513,
-0.022107,0.053181,-0.015374,-0.090662,-0.048265,0.011780,-0.046041,-0.086353,-0.013313,-0.079304,
-0.022931,0.005799,0.015164,0.065059,0.002880,0.044569,0.067711,-0.004047,-0.079270,0.051761,
-0.022503,0.049476,0.048952,0.027452,0.036173,0.066891,-0.037368,0.010078,-0.094126,-0.081361,
-0.004949,-0.080584,-0.039366,-0.093113,-0.061783,-0.018817,0.051865,-0.022741,-0.003931,-0.072282,
0.006809,-0.065801,0.050862,-0.032035,0.012802,-0.026142,-0.086735,-0.009924,-0.083988,0.018953,
0.036826,-0.027256,0.060395,-0.088261,-0.004769,-0.072179,-0.023162,0.041491,0.020765,0.001935,
-0.004271,-0.079572,-0.061957,0.020098,0.029161,-0.035675,0.046370,-0.095357,0.064387,-0.045766,
-0.080199,-0.078641,0.035713,0.039648,-0.043050,-0.037040,0.031648,-0.057112,0.047299,-0.067740,
0.039634,-0.030286,0.066790,-0.089019,-0.043777,0.003706,0.058766,-0.052215,0.030006,-0.035892,
-0.055293,0.044612,-0.028827,0.059457,-0.071415,-0.061951,-0.075917,0.001605,0.068799,-0.054045,
-0.074746,-0.036455,0.041386,-0.082113,-0.074597,-0.081471,-0.029456,-0.081145,0.037132,0.035962,
-0.050848,0.045102,-0.029224,-0.058972,-0.035903,-0.046430,-0.036388,-0.085544,0.017443,-0.022822,
-0.085723,-0.071294,-0.086405,-0.043056,0.029820,-0.046638,0.000434,0.055697,0.013250,0.024018,
0.072472,-0.076259,-0.006989,0.024269,-0.058918,0.075052,-0.065505,0.054842,0.051482,-0.031470,
-0.033642,0.029977,-0.076468,-0.026255,-0.078737,-0.073906,0.015629,0.009553,0.047749,0.042056,
-0.044219,-0.046003,0.003893,-0.045360,0.056047,-0.052146,-0.059077,0.040748,0.036277,-0.087491,
-0.038329,0.018793,0.043769,0.017095,0.039343,-0.086322,-0.081846,-0.058061,0.038541,0.028286,
-0.012318,0.047467,0.070467,-0.067152,-0.032575,0.006540,0.050317,-0.061387,-0.020585,-0.068015,
-0.091184,-0.063529,-0.029838,0.003661,0.013529,-0.084058,-0.025905,-0.063132,-0.077448,-0.050479,
0.016502,-0.042397,-0.004285,-0.043825,0.053871,0.040383,-0.053994,0.062785,-0.012713,0.011084,
0.050133,0.017989,-0.072029,-0.029121,0.048738,0.017178,-0.032985,0.041120,0.031932,0.070112,
0.015283,-0.002895,-0.000457,-0.070188,-0.012638,0.043212,0.003221,0.048685,0.042578,-0.004676,
-0.026325,0.039953,-0.069461,-0.002573,-0.080363,0.051809,0.060375,-0.023144,0.000181,-0.004634,
-0.023286,0.067698,-0.062156,-0.009056,0.029745,0.013747,0.049507,0.063982,-0.072300,0.035023,
0.009452,-0.021255,-0.018201,-0.049011,0.042580,-0.016855,0.052082,0.048225,0.069816,-0.015899,
-0.001584,0.036438,-0.027857,0.067778,-0.079354,0.040294,-0.002646,0.069511,-0.020494,0.074739,
-0.037980,-0.005427,0.008737,-0.079801,-0.044523,-0.028045,0.035271,0.073112,-0.035191,0.025997,
0.014593,-0.036540,-0.038948,-0.013831,0.044179,0.032733,-0.012490,-0.066612,0.028166,-0.017921,
-0.077319,0.032226,-0.035983,0.072928,-0.053413,-0.052971,-0.003284,0.038910,0.013262,0.050372,
-0.005419,0.053173,-0.050432,-0.042697,-0.053941,-0.051439,-0.014187,0.069749,0.055859,0.073518,
0.050902,0.027931,-0.066607,0.072160,-0.012370,0.013602,0.034244,0.011844,-0.020261,0.030998,
-0.064305,-0.071756,-0.008113,-0.051844,0.035074,-0.037294,0.001944,0.043005,-0.086386,0.028642,
0.015674,-0.002485,-0.043177,-0.016140,-0.006174,0.007614,-0.089120,-0.043910,-0.029895,0.032131,
-0.011855,-0.002237,0.012582,-0.019001,-0.031557,-0.070123,-0.065145,0.057246,-0.045680,0.040166,
-0.063840,0.011375,-0.027976,0.015726,0.075837,0.048211,0.006864,-0.074643,-0.027434,0.006619,
-0.060011,-0.048976,-0.032849,-0.039747,-0.030575,-0.076007,0.072462,0.057318,-0.080451,-0.077697,
-0.063299,0.037507,-0.015764,-0.049100,-0.032391,0.048788,0.052612,0.033611,-0.025833,-0.054544,
-0.043406,0.025231,0.017069,-0.033012,-0.079582,-0.010296,0.071705,-0.065035,0.048213,-0.065527,
0.046051,-0.081791,0.027507,0.059432,-0.024591,-0.033418,0.038148,0.079427,-0.056647,-0.062846,
-0.017816,-0.021623,-0.086075,-0.090463,0.026502,-0.065878,-0.010992,0.025702,0.072518,0.023054,
-0.073914,-0.052738,-0.026758,-0.033376,0.058429,-0.052286,0.048692,-0.005399,0.017805,-0.079703,
-0.077995,-0.083858,-0.091030,-0.030598,0.063719,-0.073253,-0.016578,-0.057623,0.046984,0.033704,
0.005067,0.025957,0.031903,0.044370,0.051130,0.061074,0.067796,-0.079443,-0.080714,-0.028535,
-0.021920,-0.006843,0.064331,-0.075499,-0.049219,0.005891,0.023089,0.046620,-0.010893,0.067570,
-0.078148,-0.074180,-0.005644,-0.024233,-0.011415,-0.017118,-0.038642,-0.041999,0.045615,0.072930,
-0.084876,0.065602,0.014283,-0.045465,0.018456,0.050038,0.021790,-0.069911,0.013664,-0.002534,
-0.041437,-0.041706,-0.065388,-0.045015,-0.014381,0.045997,-0.083769,-0.083135,-0.044620,0.057276,
0.030258,-0.011565,0.028265,-0.036702,0.023349,-0.000928,-0.028437,-0.054631,-0.009431,-0.060340,
0.064418,-0.069325,-0.027879,0.056687,-0.077979,0.026477,0.039677,-0.062212,-0.076541,0.062167,
-0.083335,-0.072656,0.042395,0.063908,-0.001363,0.013428,-0.032763,0.032675,-0.084394,-0.017228,
0.005817,0.020379,0.028047,0.039033,-0.073468,-0.050783,0.017965,-0.008294,0.117550,-0.020281,
0.088237,0.047865,0.087077,0.093558,-0.018778,-0.006417,0.076659,0.105437,0.030786,0.030654,
0.067194,0.070160,0.028412,-0.014196,0.048105,0.084920,0.048185,0.131528,0.088765,0.109924,
0.067254,-0.023050,0.017744,0.047961,0.023918,0.054595,-0.019816,0.035842,0.008488,-0.037892,
0.036235,0.103099,0.029703,-0.012502,0.074745,-0.028851,0.071772,-0.020339,0.043705,0.049283,
0.074884,0.095372,0.109155,0.030410,0.015408,0.047595,0.017667,0.081599,0.081510,0.031211,
0.048945,0.041846,0.018277,0.039244,-0.039305,0.046955,-0.018944,0.042459,0.024862,0.014855,
0.103189,0.007626,-0.021290,0.061022,0.085437,0.037621,0.092343,0.107293,0.121625,-0.037110,
0.123221,0.085658,0.056960,-0.032142,-0.032315,0.094847,0.044796,0.048302,-0.016219,0.067355,
-0.003165,-0.035652,0.100323,0.002920,0.049684,-0.013813,0.047194,-0.031757,0.002930,0.016508,
0.092702,0.006702,0.055525,0.016662,0.090325,-0.002761,0.041527,0.126287,0.058359,-0.000748,
0.047497,0.116561,0.039653,-0.029618,-0.012818,0.120142,0.006894,0.118974,0.107338,0.085449,
0.019996,0.023449,0.120128,0.049729,0.076454,0.046483,0.006217,-0.027179,0.043105,0.084544,
0.039572,0.064119,0.114871,0.117413,0.075589,0.058786,0.083235,-0.000737,-0.024188,0.054267,
-0.005153,0.107826,0.091652,0.071126,-0.027115,0.064506,0.087431,0.091636,0.006806,0.047653,
0.004982,-0.005562,-0.060610,-0.086351,-0.009061,0.046287,0.025488,0.031346,0.028605,-0.062774,
-0.063229,-0.038951,-0.037781,-0.052899,0.010708,0.002816,-0.061003,-0.052131,0.016285,-0.059903,
0.045779,0.030105,-0.091098,0.032181,0.016425,-0.061678,0.006839,0.036284,-0.029963,0.044841,
-0.067937,0.002136,-0.040912,0.040154,-0.011158,0.061513,0.023699,-0.057008,0.038083,-0.085160,
0.035326,0.023808,-0.083584,-0.035535,0.033555,-0.013569,0.050571,0.067411,-0.032485,-0.087525,
-0.030577,-0.043633,-0.056177,-0.068266,-0.019739,0.026474,-0.053320,0.013338,0.049061,0.055939,
-0.012284,-0.060830,0.067588,-0.036525,0.054089,-0.094463,0.020111,0.054883,0.067721,-0.018459,
-0.092017,-0.062698,0.067897,-0.060661,0.023226,-0.094838,-0.035454,-0.068442,-0.070633,-0.007308,
0.068131,0.061316,-0.051644,0.003761,-0.001498,-0.027647,-0.081362,0.051805,-0.045302,-0.043697,
0.007784,-0.083870,0.065808,0.050417,0.010822,-0.004548,0.049979,0.025779,-0.005480,-0.044479,
-0.080189,-0.006450,-0.067081,-0.035842,0.045599,-0.063784,-0.036103,-0.002357,0.011505,-0.063857,
-0.007008,-0.050540,-0.020445,0.047679,0.031125,0.058006,-0.031556,-0.073136,-0.060086,0.021010,
0.003434,-0.078900,-0.071989,-0.010709,-0.084044,-0.017386,-0.031491,-0.008284,-0.018640,-0.068590,
-0.043256,-0.055845,-0.003010,-0.058804,0.052479,-0.023984,0.007451,-0.061188,0.030984,0.055589,
0.029229,0.048580,-0.005378,0.012076,-0.012315,0.002162,-0.023567,-0.011619,0.055804,0.059307,
0.026739,0.022977,-0.006289,0.018901,-0.000509,-0.027531,-0.009556,-0.040205,-0.020456,0.050946,
0.057901,0.022350,-0.075387,0.002575,-0.046506,-0.038934,-0.071484,0.055550,-0.088647,0.072599,
-0.019945,0.062217,0.002017,-0.020527,0.081717,0.040693,-0.053683,-0.029094,0.019498,0.039968,
0.055177,-0.010768,0.060631,-0.064407,-0.087143,0.029820,-0.011181,-0.015286,-0.003120,-0.065656,
-0.004065,0.044744,0.023312,-0.052293,0.054750,0.048396,0.071996,0.070953,-0.038701,-0.078193,
-0.056986,-0.018865,0.082450,-0.032143,-0.013110,-0.059505,-0.052626,0.005589,-0.068242,0.035326,
-0.009339,-0.059399,-0.018910,-0.054328,0.072240,0.037264,0.053342,-0.081088,0.028849,0.071221,
-0.083926,0.073188,0.076157,0.009096,0.051933,-0.085425,0.042769,-0.087589,-0.015912,0.017664,
-0.005337,0.008844,-0.019466,-0.086997,0.029711,-0.012782,-0.045118,-0.064361,-0.044978,0.055401,
0.064363,0.053920,0.071337,0.018568,-0.022072,-0.006337,0.025924,0.061604,-0.077079,-0.061994,
-0.064461,0.040846,0.036828,0.008693,-0.080785,0.038489,-0.079160,-0.049011,-0.029142,0.071492,
0.021363,0.071003,-0.038245,0.063802,-0.082797,0.066123,0.021628,0.030660,-0.080651,-0.029977,
-0.009898,-0.072854,-0.000739,-0.057737,0.051059,-0.030230,-0.056734,0.058335,0.005606,0.033125,
0.060820,0.044027,-0.002643,-0.069300,-0.061969,0.058365,-0.068845,0.000632,-0.081142,0.024622,
0.013840,0.019860,0.046076,-0.084897,0.020581,0.020914,-0.075796,-0.052700,-0.009836,-0.006653,
0.047742,-0.049995,-0.036241,0.010142,0.032147,-0.091490,-0.033399,0.031669,-0.088427,-0.033071,
-0.022975,-0.012605,0.048453,-0.023947,0.043221,-0.088571,-0.032898,-0.051756,-0.050727,0.061324,
0.024199,-0.058908,-0.072008,-0.081130,-0.068957,-0.011756,-0.061157,0.019524,-0.018014,-0.011467,
0.026944,-0.041275,0.044837,0.060465,-0.091818,0.063479,-0.059987,-0.073133,-0.029058,-0.088586,
-0.027694,0.027357,-0.003492,-0.019520,-0.022168,-0.074601,0.057970,0.033088,-0.066778,-0.073822,
-0.026220,-0.085301,0.046163,0.054656,-0.034179,-0.066363,-0.084299,0.043141,0.036312,0.066442,
0.022952,0.021973,0.037479,0.003165,-0.077650,0.069016,-0.018527,0.054963,-0.013859,-0.049917,
-0.094619,-0.050881,-0.073785,-0.042158,0.058315,-0.086487,0.026038,-0.083703,-0.070731,0.072675,
0.057447,-0.000248,0.014655,-0.090763,0.008536,-0.090319,-0.064436,-0.047828,0.022007,0.024572,
-0.023726,0.031381,0.010167,-0.020211,-0.000708,0.052489,0.051265,0.059243,-0.070896,-0.095686,
-0.090138,-0.019894,-0.006094,0.051578,-0.006797,-0.014282,0.064741,-0.052385,-0.044333,-0.040809,
0.035894,0.056517,0.052574,0.012322,-0.023425,0.051247,-0.015412,0.001267,-0.073822,0.000351,
-0.064485,-0.043814,-0.021082,0.042066,-0.039333,-0.020006,-0.038639,-0.080692,-0.063934,-0.026195,
0.009318,0.057414,-0.010319,-0.009846,0.014896,0.048480,0.049791,-0.046098,0.049731,-0.007293,
-0.022122,-0.058957,0.036816,0.063336,-0.057738,0.063213,-0.007289,-0.039874,-0.032576,-0.034864,
0.011567,-0.012092,0.046731,-0.006294,0.080616,0.061920,0.084122,-0.045069,0.035128,0.010335,
-0.007198,-0.062302,0.062284,0.018759,-0.050716,0.041923,0.080354,0.082673,-0.042746,0.018023,
-0.050229,-0.039539,0.040709,0.100908,0.092652,0.027472,-0.014846,0.032589,-0.071396,0.092808,
0.039656,-0.039167,0.074886,0.049496,-0.068572,-0.060953,-0.028515,0.028767,0.036739,-0.011802,
0.059659,0.027854,-0.070268,0.065121,0.000584,-0.009132,0.074549,0.033906,-0.050023,-0.015188,
0.025824,-0.049981,0.058095,0.024298,0.020559,0.038097,0.076972,-0.006790,0.031255,0.086273,
0.021471,0.080064,0.088514,0.038671,-0.013462,0.078130,0.074020,0.030783,-0.012906,0.081862,
0.062443,-0.008081,0.082021,0.047846,0.038659,0.082062,0.069269,0.052246,-0.000876,-0.035097,
0.047465,0.041197,0.065199,0.081831,0.004670,0.076620,0.032264,0.095064,0.094138,-0.027126,
0.095835,0.074455,0.030189,-0.035853,-0.022678,0.016835,0.021585,0.089565,-0.015198,-0.007736,
-0.001919,-0.028733,-0.018125,0.090294,0.057133,0.075819,0.020148,-0.043973,-0.014681,-0.050115,
-0.031155,-0.038453,0.025131,0.089476,0.083157,0.089732,-0.018679,0.019036,0.008863,-0.000438,
0.008975,0.034066,-0.067506,0.056373,-0.026550,-0.014147,0.073660,0.069933,0.051009,-0.025223,
0.102063,0.007763,0.062977,-0.036965,0.036089,0.059318,0.055446,0.074797,-0.026008,0.094665,
0.010516,0.109475,-0.006100,0.015322,0.061325,0.074396,-0.052264,0.072317,-0.046969,0.053868,
-0.057674,0.041417,0.041787,-0.036123,-0.006849,-0.007056,0.105256,0.103381,0.043778,-0.039807,
-0.052087,0.086592,0.017658,0.112863,0.082691,0.015379,0.048295,0.014331,0.092705,0.076962,
0.011065,0.089595,-0.020718,-0.036533,0.074756,0.092817,0.082405,0.016232,0.088159,-0.038354,
0.053410,-0.029870,0.063309,-0.043941,-0.064843,0.049291,0.017198,-0.040819,0.018733,-0.026576,
0.027580,-0.002548,0.018278,-0.014570,-0.004267,0.046532,0.064599,0.056110,0.015240,0.067149,
0.022963,0.000356,0.008978,0.096811,0.025851,0.028344,0.044895,0.103318,-0.042492,0.017662,
-0.004115,0.102690,0.037463,0.026981,0.097592,0.101191,-0.023173,-0.027623,0.014799,-0.044914,
0.083306,-0.026532,-0.050686,0.068319,0.038373,0.078978,-0.034509,-0.008663,-0.042557,-0.038406,
0.036806,-0.042882,-0.014483,0.078796,0.021391,0.110678,0.053792,0.011726,-0.025136,-0.021007,
0.092059,0.080090,0.089317,-0.019755,0.022649,0.097387,-0.037688,0.097317,0.015747,0.088463,
0.022990,0.000877,0.116065,0.025273,-0.037149,0.091825,-0.027844,0.077415,-0.013182,0.071192,
0.115960,0.067011,0.024819,0.084956,0.103621,0.021309,0.014069,-0.027781,0.051960,-0.034099,
0.059028,-0.030527,-0.075778,-0.022395,-0.003731,0.078741,-0.026453,0.032265,0.013815,0.036638,
-0.054979,0.034502,-0.007305,0.047583,-0.050776,-0.029125,-0.009824,-0.060345,0.050156,-0.069271,
-0.080233,0.018002,0.001676,0.005872,0.009502,-0.069500,0.016721,0.049103,-0.016008,0.040761,
0.044663,-0.055615,0.101920,0.080167,0.093159,-0.001157,-0.002071,-0.051833,-0.017245,0.080108,
0.082980,0.028244,-0.014777,0.011851,0.087860,-0.059687,0.064859,-0.003123,0.065811,0.023477,
-0.067282,0.075974,0.076467,-0.029081,-0.016985,0.054727,-0.051361,-0.044018,-0.056690,-0.044441,
0.056008,0.045966,-0.068154,0.040333,0.080417,0.025737,0.061761,-0.022698,-0.048476,-0.054104,
-0.012226,0.049661,0.005492,0.019357,-0.050716,0.071373,0.092328,0.042472,0.050298,0.052618,
0.073460,-0.019115,0.067980,-0.004194,0.026038,0.005438,0.077589,-0.002149,0.053261,-0.012207,
0.021187,0.045121,-0.026255,-0.063911,-0.009503,0.018324,-0.034586,-0.014009,-0.053161,0.071445,
-0.032093,-0.069962,0.038050,-0.060213,0.086821,0.085411,0.082083,0.027866,0.061432,0.037102,
0.039956,0.055136,-0.020218,0.009174,0.079677,-0.020523,-0.080102,0.087720,0.012889,0.080429,
-0.034308,-0.033796,0.097081,-0.014864,0.055224,0.090412,-0.024873,0.053571,0.009366,0.016499,
0.035748,0.021353,0.033390,-0.056469,0.033611,-0.046119,0.070122,0.071592,0.062589,0.055159,
0.095269,0.084886,0.086460,-0.041312,0.041718,0.018969,-0.023111,0.057408,-0.031295,0.027840,
0.013309,0.011994,0.043992,-0.021172,-0.019591,-0.082882,-0.020301,-0.052879,-0.026366,-0.083602,
-0.033211,-0.051268,0.058124,-0.007098,-0.025117,-0.014513,-0.028865,0.024203,-0.028521,0.036058,
-0.078934,0.047753,0.060725,-0.040734,0.066360,-0.014334,-0.046897,-0.074478,0.033048,-0.063275,
-0.079824,0.022697,-0.046853,0.067301,0.037584,-0.040341,0.052720,0.054859,-0.020767,0.066558,
-0.080227,-0.043455,-0.078419,-0.086596,0.037570,0.044355,-0.075687,0.060429,0.052100,0.000847,
-0.041876,0.079198,0.002886,0.041701,-0.037554,-0.042028,0.027446,0.046458,0.066213,-0.056204,
0.071382,-0.013010,-0.026960,0.026087,-0.015028,-0.007226,-0.070932,-0.009512,0.051291,-0.073152,
-0.036941,-0.066229,-0.018433,-0.050887,0.022897,-0.020942,-0.052709,0.028556,0.019986,0.051098,
0.056860,-0.061636,0.024869,0.048949,-0.009359,0.033106,-0.080894,-0.014618,-0.072594,-0.086362,
-0.003639,0.069149,0.054897,-0.073631,-0.028218,0.048445,0.028296,-0.081296,0.052373,-0.086462,
0.051249,0.017441,0.000345,-0.075667,-0.002087,0.024558,-0.011600,-0.003137,0.012052,-0.027787,
-0.054405,-0.030396,-0.072995,-0.069473,-0.008392,0.019931,-0.082170,0.023242,0.029651,-0.052074,
0.011457,-0.039027,-0.045272,0.031801,0.010950,0.026134,-0.035361,0.023717,0.038891,0.038570,
-0.011598,-0.044962,0.027201,0.007053,0.057514,0.049849,0.040648,0.011099,0.051191,0.098878,
-0.036622,-0.007157,0.111752,0.060718,0.107069,-0.012597,0.115028,0.081139,0.061847,0.094019,
0.066274,0.066335,-0.035973,-0.024246,0.040819,-0.039695,0.110290,-0.030598,0.105454,0.084565,
0.072570,0.116727,0.069232,0.087374,-0.039656,0.084853,0.092954,-0.023863,0.085676,-0.056668,
-0.038599,-0.035572,0.047418,-0.017900,-0.015180,0.027036,0.090038,0.086206,-0.028061,-0.027668,
0.003121,0.047384,0.001403,0.052087,0.100623,0.071599,0.034047,0.023708,-0.003536,-0.020778,
0.043849,0.010594,-0.025580,-0.043184,-0.001609,0.002514,0.032126,0.053836,0.077102,-0.014651,
0.062451,0.044550,0.048206,0.015005,-0.013344,0.065205,0.074524,0.117083,0.069961,-0.007479,
0.000054,-0.010638,0.102578,-0.019726,0.034816,0.027197,0.060975,-0.015843,0.086446,0.063860,
0.093444,0.084246,0.029737,-0.054608,0.086176,-0.050676,0.006534,-0.049193,0.017511,-0.032222,
0.038400,-0.018043,0.072582,0.013190,0.068177,-0.060814,0.053758,0.051196,0.083699,-0.007056,
-0.002641,0.072263,0.115429,0.081089,0.097107,0.089330,0.018970,-0.010415,0.079043,0.111546,
0.066629,0.042687,-0.039829,0.094829,0.045722,0.066456,0.069938,0.075341,0.003341,0.076950,
0.042944,0.017513,0.002331,0.042152,-0.048486,-0.016438,0.082034,-0.016420,0.057043,-0.036603,
-0.029823,-0.034957,-0.046279,-0.056651,-0.051114,0.042288,-0.009329,0.088505,0.015270,-0.009928,
-0.044185,0.027552,0.024022,-0.041926,-0.079907,0.045728,-0.047790,0.019424,-0.012692,-0.019229,
-0.003858,-0.001708,-0.053574,0.057212,-0.056230,0.069612,-0.061786,0.003013,-0.069591,0.040476,
0.053105,0.009067,0.070825,-0.061667,0.007929,-0.013948,-0.082029,0.019794,0.073563,0.027637,
-0.038808,-0.058627,-0.056465,-0.043650,0.008296,-0.091935,-0.054964,-0.002360,-0.072413,-0.049613,
0.066828,-0.076589,0.071799,0.026842,0.066813,-0.082821,-0.071471,-0.050752,0.037702,-0.082233,
0.064406,-0.001028,0.001121,0.048021,0.003479,-0.073429,-0.021572,0.013294,0.071120,-0.051155,
0.077748,-0.046327,-0.075177,0.082820,-0.053432,-0.082107,0.065687,-0.081555,-0.033386,-0.041284,
-0.066220,0.016846,-0.026306,-0.019672,-0.092996,0.077753,0.073583,0.055523,0.034935,-0.006672,
0.022697,0.021098,0.052034,-0.007100,0.046273,0.018586,0.037496,0.035643,-0.061599,-0.079679,
0.051536,0.074255,-0.084726,-0.046416,0.072288,-0.029938,-0.000878,0.063177,-0.088045,0.032421,
-0.035021,0.017327,-0.070293,0.037865,0.018258,0.023257,-0.038154,-0.033556,-0.016428,-0.044160,
0.005540,0.054148,0.039555,-0.057014,0.045962,-0.079583,0.027939,0.049015,-0.055322,0.019618,
-0.079883,0.049935,-0.066710,-0.002719,0.064463,-0.027833,0.031040,0.033097,-0.021883,0.067164,
0.016991,0.038955,-0.051290,0.057842,-0.029600,-0.043099,-0.088222,-0.063401,-0.035780,0.014057,
0.024245,-0.070021,0.069430,-0.042740,0.015293,0.079665,0.048374,-0.071846,-0.011380,-0.031731,
-0.034843,-0.051842,-0.021325,0.018595,0.018053,-0.063354,0.051148,0.049996,0.033627,0.044398,
0.024659,-0.008294,0.025333,-0.090682,-0.031354,-0.073999,-0.025584,-0.024993,-0.015513,0.031597,
-0.023144,-0.054270,0.020785,0.036108,-0.000197,-0.014845,-0.039791,-0.067216,0.028948,-0.030826,
0.027963,0.035268,0.001011,-0.001825,-0.047293,0.040279,-0.077691,-0.010774,0.055852,0.022391,
-0.001430,-0.013980,0.039513,-0.084584,0.041962,-0.064864,-0.013706,-0.069355,-0.000656,0.040048,
-0.049631,-0.053772,0.044947,-0.062313,-0.045614,-0.035856,-0.026966,-0.063206,-0.049409,-0.077447,
0.050853,0.036114,0.003514,0.043526,0.042725,0.018080,0.035144,0.020770,0.032937,-0.022174,
-0.029248,-0.026441,0.033200,-0.041527,-0.007002,0.071719,-0.011979,0.010677,-0.060444,0.057391,
0.076147,-0.016900,-0.041914,-0.014925,-0.043902,-0.013426,-0.070950,-0.015629,-0.086356,-0.023843,
0.028748,-0.022562,-0.080243,-0.078957,-0.072198,0.027359,0.044313,-0.011738,-0.011604,-0.007994,
-0.087972,0.019514,0.026798,-0.009692,0.019311,-0.008848,0.044321,-0.063754,0.001533,0.009489,
0.045248,0.019656,0.011053,-0.065888,0.019866,0.061617,0.010998,-0.032609,-0.015817,-0.061122,
-0.058921,0.016374,0.060304,-0.003211,-0.053206,-0.089213,-0.008404,0.013887,0.071701,-0.011640,
-0.067435,0.043845,-0.040064,-0.037618,-0.036427,-0.010072,0.022478,-0.036058,-0.010308,0.042390,
0.018452,0.019452,0.084280,-0.022020,0.040860,-0.022285,0.018760,0.030649,0.028897,-0.012503,
0.015409,-0.029476,0.083013,-0.042773,-0.010366,0.041377,-0.017996,-0.063056,0.087497,-0.057863,
-0.017792,0.090113,0.103699,-0.058461,-0.035099,0.035733,0.043007,-0.036341,-0.066483,-0.019833,
0.095223,0.091846,0.077298,0.012694,0.046432,-0.024254,0.073176,0.029087,-0.041938,-0.028706,
0.055531,-0.055064,-0.049793,-0.045606,-0.011780,0.061386,0.013910,0.019927,0.006299,-0.050709,
0.071903,0.056486,0.006783,-0.005818,0.003994,0.019839,0.036433,-0.022703,-0.027814,0.074305,
0.037404,-0.035306,0.009072,-0.037261,0.062467,-0.044301,0.070544,0.066214,0.030465,-0.035239,
0.065100,0.089008,-0.035235,-0.047508,0.072626,0.077958,0.061720,0.033742,-0.029361,0.038645,
-0.027858,-0.041864,-0.004719,0.003029,0.074766,0.046701,0.054883,-0.036083,-0.048446,0.092673,
0.055400,-0.058266,-0.009869,-0.028554,0.024511,0.098575,0.041830,-0.052372,-0.020620,-0.004524,
-0.024769,0.091522,0.048330,-0.033052,0.066758,-0.020044,0.073637,0.007751,0.062063,-0.047287,
0.094626,-0.038862,0.041604,-0.007624,0.016794,-0.042798,0.051847,0.073159,0.019392,-0.055103,
0.024099,-0.000332,0.053641,-0.062926,0.081184,0.026991,0.011810,0.060649,-0.035271,0.091418,
0.074497,-0.025883,0.045612,-0.034956,0.074502,-0.048550,-0.075265,0.029141,-0.072887,-0.064550,
-0.057020,0.062365,0.031076,-0.052870,-0.039771,-0.072946,0.038227,-0.003914,0.053784,-0.081012,
-0.052111,0.030696,-0.035443,-0.024082,0.031008,0.003328,0.007338,-0.032419,-0.001443,0.054618,
0.045771,0.026611,0.064820,-0.088709,0.066093,0.002962,-0.063905,-0.016843,-0.000380,0.014411,
-0.037713,-0.056158,0.019798,0.029419,-0.033658,0.031378,-0.016414,0.038991,-0.015091,0.044695,
0.001842,-0.035997,-0.042194,-0.033483,-0.024527,-0.076017,0.029565,0.034141,-0.018024,-0.033515,
0.058539,-0.095725,-0.048673,-0.054831,-0.039022,-0.050810,-0.011985,-0.064193,0.052868,-0.019120,
0.057702,-0.083844,0.064201,0.038396,-0.045709,-0.037122,-0.071194,-0.001700,0.049849,-0.007740,
-0.030363,-0.035399,-0.049455,0.043805,-0.024018,0.054942,0.019453,0.024918,-0.022929,-0.025378,
-0.041065,-0.097519,0.022765,-0.043774,-0.096693,0.005480,-0.099433,0.019348,-0.022586,-0.074920,
0.004029,0.058965,-0.050245,-0.008360,-0.025280,0.040750,0.008045,-0.012937,-0.092625,0.043742,
0.000004,-0.007866,0.056046,-0.039947,-0.100687,0.035092,0.018557,-0.083805,-0.010761,0.041135,
-0.004699,0.024753,0.049637,0.033617,0.012149,-0.098012,-0.079087,0.003661,0.025264,-0.047410,
-0.057192,0.022291,-0.021415,-0.039676,0.010878,0.061595,-0.026194,-0.055393,0.012227,-0.067771,
-0.019292,-0.032387,0.002265,0.027765,-0.002284,-0.009989,-0.034236,-0.035416,-0.085304,-0.085349,
0.026086,-0.084033,-0.090115,0.012140,0.010458,-0.016178,-0.089943,0.048363,-0.039723,-0.050521,
-0.022905,-0.062179,-0.039413,0.053284,0.063048,-0.060548,0.049653,0.044595,-0.011485,0.075436,
0.076102,0.066673,0.075722,-0.041207,-0.066614,-0.023892,-0.027733,-0.064199,0.029142,-0.008993,
0.033884,-0.085855,-0.075014,-0.083673,0.010088,0.048038,0.082187,-0.054991,-0.048330,0.054590,
0.073202,-0.034670,-0.059726,-0.046699,-0.063979,-0.050998,0.073804,0.073865,0.077386,0.054473,
0.003759,0.041153,-0.046386,-0.064649,0.067692,0.005578,0.024545,0.027190,0.059080,-0.031728,
-0.004501,0.029943,-0.005346,0.062623,0.075938,-0.021704,0.064662,-0.034049,0.069991,-0.033460,
0.000692,0.026217,0.070110,-0.005282,-0.072322,-0.008595,0.035082,0.076479,-0.072503,0.041610,
-0.059409,-0.044779,-0.021229,-0.036940,0.073460,-0.077072,-0.001247,0.076044,-0.017769,-0.096773,
-0.006922,-0.031297,-0.033275,-0.090355,0.007136,-0.069802,-0.051383,0.010800,0.004458,0.032072,
0.043168,0.034099,0.064676,-0.046772,-0.007527,-0.019274,-0.018998,-0.014417,-0.058098,-0.008872,
0.007783,-0.029767,-0.079056,0.016356,-0.008078,-0.085302,0.043830,0.031408,0.067829,0.027846,
0.013063,0.039448,0.056144,-0.031567,-0.032811,-0.043331,0.004082,0.055368,0.021535,-0.070305,
0.070393,0.040216,0.027795,0.036280,-0.022333,0.011371,0.006163,-0.027530,-0.062714,0.001947,
-0.079823,0.016472,-0.030099,-0.060132,0.078481,0.054498,0.025297,-0.014835,0.017709,0.029325,
-0.016703,-0.037630,0.001090,0.117318,-0.043190,-0.034216,0.101839,0.090842,-0.001910,0.022015,
0.111602,0.077760,0.108968,0.112517,-0.028203,0.032966,0.069742,-0.012798,-0.014713,0.074097,
-0.044007,-0.054829,0.056458,0.108654,0.107432,-0.004889,0.074938,-0.049548,0.105344,0.063295,
0.025803,-0.020943,0.008116,0.050797,0.049513,-0.023061,0.041269,0.111551,0.025648,0.088170,
0.110148,0.055850,-0.019229,0.059324,0.109710,0.009142,0.102022,0.026341,0.085110,-0.045595,
-0.028062,-0.006596,-0.025683,-0.010022,-0.045964,0.037958,0.039163,0.007387,-0.055593,0.009889,
-0.072956,-0.002674,0.026172,-0.076896,0.009013,0.025079,-0.036138,0.088619,-0.016748,0.126914,
0.037131,0.006693,0.077042,0.098273,0.107572,0.070053,0.033111,0.078276,0.102096,0.065843,
-0.026947,0.116219,-0.011138,-0.021783,0.098231,0.093742,0.064461,0.051600,0.082081,-0.010311,
0.076725,-0.015899,0.115707,0.012033,0.073488,-0.013053,0.016135,-0.041468,0.055261,0.001649,
0.097281,0.045864,0.112424,0.116208,0.059769,0.044325,0.033684,0.074456,0.071949,0.120119,
0.057598,0.010684,0.118211,-0.011368,0.109034,-0.010545,0.040470,0.111679,0.071944,0.090139,
0.069541,0.120496,0.056575,0.043171,0.040071,0.056145,-0.017731,0.091614,0.054352,0.111357,
0.085127,-0.026407,0.091757,-0.010012,-0.003305,-0.000759,0.034583,-0.023298,0.073063,-0.028393,
0.024456,0.009666,0.045059,0.022557,-0.008348,0.020028,0.038916,-0.001864,0.009377,0.050520,
-0.058452,-0.083740,-0.082682,0.038880,0.050493,0.006011,-0.015402,0.008261,-0.070554,-0.086861,
-0.035177,-0.043722,0.018963,-0.001643,-0.002004,0.046586,0.037687,0.045116,-0.040186,0.012640,
-0.042601,-0.023045,0.021999,-0.029210,0.022464,0.001755,0.030883,0.031483,-0.061673,0.037002,
-0.029422,-0.018961,-0.026749,-0.058451,-0.036012,-0.033691,-0.057407,0.013706,-0.059403,0.038855,
-0.074576,-0.078572,-0.029600,0.036309,-0.055841,0.071579,-0.043588,-0.080578,-0.016334,-0.012962,
0.050400,0.063749,-0.055661,-0.073851,0.014706,0.004484,0.017980,0.048126,0.074552,-0.001156,
-0.036001,-0.057303,-0.047617,-0.050154,0.043007,0.073232,0.006352,-0.058797,0.010512,0.017702,
0.071171,-0.025369,-0.015454,-0.078131,-0.048795,-0.038550,0.014697,0.009082,-0.041659,0.055994,
0.076176,0.071581,0.033318,-0.009151,-0.010567,0.032470,-0.036773,0.060956,-0.029969,-0.020200,
-0.070945,0.019904,-0.023155,0.039917,-0.022815,0.066011,-0.058367,-0.045316,-0.016975,-0.019840,
-0.004455,0.039859,-0.030188,-0.041047,-0.068021,0.014920,-0.021009,-0.008944,-0.049469,-0.042875,
0.057818,0.015923,-0.013939,-0.069498,0.060716,0.056342,-0.036741,0.049490,0.035269,-0.042168,
-0.079126,0.047695,0.008306,0.044621,-0.025177,0.018144,-0.078216,-0.090187,0.064698,-0.036957,
0.071040,0.021600,-0.030629,-0.057716,-0.063556,-0.034784,0.050893,-0.004234,0.048672,-0.021960,
-0.043891,0.056345,0.050792,-0.014541,0.016630,-0.029539,-0.054836,0.012858,-0.052287,-0.028832,
0.021928,0.033099,0.063509,0.068800,-0.025725,0.003679,-0.065443,-0.068097,0.018307,-0.008059,
-0.013484,0.001251,-0.003563,-0.094391,0.035482,-0.044660,0.069579,0.031125,-0.010111,-0.022825,
-0.077296,0.028261,0.033645,0.051249,-0.079347,-0.063976,0.009627,0.027355,-0.003950,-0.100863,
-0.048756,-0.005462,0.019969,0.053620,0.010953,-0.058542,0.009670,-0.047071,-0.084046,-0.060472,
-0.087781,-0.038048,-0.010362,-0.044063,-0.018332,-0.017469,-0.035399,0.023394,-0.058378,0.044616,
0.029022,0.056111,0.037362,-0.089965,0.041495,-0.021863,0.025836,0.052878,0.033417,-0.011898,
-0.089693,0.052080,-0.005468,0.044956,0.064783,-0.023571,0.017397,-0.029811,0.024214,-0.084944,
-0.089484,-0.062442,-0.028643,0.069886,0.040085,-0.097279,0.014448,-0.044472,-0.026802,0.033241,
-0.050215,-0.086790,-0.035501,-0.027753,0.055566,0.047467,-0.004112,-0.008773,-0.040155,-0.065224,
-0.039462,-0.077870,0.053974,-0.075412,0.059216,0.044907,0.038244,0.035772,-0.076181,0.056316,
-0.077943,0.042766,-0.073146,-0.082898,-0.072558,0.030421,-0.025204,-0.077233,0.051688,-0.054173,
-0.014372,-0.068078,0.038831,0.048981,-0.049794,0.025837,-0.094518,0.049482,-0.059894,0.024749,
0.059100,-0.015410,-0.041598,-0.035601,-0.091628,0.019585,-0.000478,-0.056860,-0.006654,-0.024376,
0.066341,0.026923,-0.090149,-0.014047,-0.056678,0.050834,0.002463,0.086207,0.017213,0.094527,
0.038031,0.057494,-0.052882,-0.016353,-0.052279,0.055915,-0.027080,-0.068678,-0.009392,0.076204,
0.078976,0.080392,0.035619,-0.056185,0.074652,0.030891,0.004264,0.100802,-0.053570,0.098757,
0.089855,0.077321,-0.014083,-0.065360,-0.028174,0.073690,-0.040118,0.077858,-0.068528,-0.034168,
-0.016182,-0.061715,0.053030,0.044034,-0.038132,-0.044123,-0.010571,0.075846,0.022962,-0.033028,
0.068164,0.010294,-0.024022,0.059339,0.008010,-0.035010,-0.022710,-0.034542,0.046416,0.025794,
-0.024666,-0.008282,-0.023336,-0.069115,0.005446,0.066441,-0.080883,0.021467,0.058785,0.003396,
-0.002574,-0.054939,0.087768,0.034971,0.014601,0.085450,-0.075506,-0.060568,0.046731,0.065918,
0.069612,0.017005,0.057035,0.082833,0.072193,0.020724,-0.042807,-0.014345,-0.055552,-0.030270,
0.085891,-0.067229,-0.014792,-0.043376,0.031808,-0.050317,0.059720,0.053097,-0.041513,-0.070418,
0.069545,0.057000,0.031041,-0.053752,-0.022375,0.041995,0.058275,0.017317,0.083155,0.086678,
0.001446,0.070519,0.066066,-0.036513,-0.052637,0.053306,0.059192,-0.018185,-0.020403,0.023913,
-0.038999,0.052850,-0.004773,0.016635,0.067437,-0.061190,0.061320,0.046075,-0.049205,-0.061419,
0.043332,-0.031149,0.024072,0.014431,-0.013661,0.090511,0.056254,-0.017775,0.086237,0.043392,
0.050597,0.036245,0.049543,-0.056479,-0.024443,0.000991,0.000637,0.018549,0.069098,0.005076,
0.004677,0.012656,-0.028259,0.028990,-0.090131,-0.042799,0.055240,-0.059900,-0.009232,-0.012930,
-0.004262,0.035782,0.010002,-0.042508,-0.028122,-0.011890,-0.061293,0.060242,-0.057841,0.002426,
-0.060448,0.035899,0.058040,0.001339,0.035780,-0.068605,0.039026,-0.070004,-0.082526,0.065733,
-0.055089,-0.077857,0.051835,0.052985,0.007122,-0.085232,0.064746,-0.075314,-0.007902,-0.050951,
0.061021,-0.065470,-0.041414,0.052469,-0.019725,0.040417,-0.005783,0.023351,0.052091,0.016385,
-0.086879,-0.004060,-0.063463,0.017376,-0.003644,0.039973,0.028159,0.021600,0.077974,0.059783,
0.031005,-0.071032,0.031684,0.011880,-0.068296,0.053147,-0.026731,0.071912,0.054751,0.051895,
-0.070805,-0.000028,-0.027758,0.013542,-0.083256,0.017402,-0.075538,0.049050,-0.001462,0.023137,
0.015987,-0.069084,-0.059538,-0.059120,-0.015025,0.059610,-0.033813,-0.089172,0.034522,0.072868,
0.072221,0.062880,-0.080456,-0.036229,-0.006857,0.027480,-0.084269,-0.046380,-0.057104,-0.002127,
-0.007502,-0.020803,-0.017292,-0.068782,0.043284,-0.049119,0.048384,-0.032320,0.042207,-0.083205,
0.062790,0.049652,-0.036100,0.057269,-0.091065,-0.048960,-0.065541,0.051260,-0.020478,-0.031985,
0.040903,-0.063319,-0.045668,-0.105649,-0.027969,-0.079531,-0.050403,0.060095,-0.003226,0.054574,
0.020860,-0.084495,0.000876,0.040507,-0.027160,-0.056118,0.055830,-0.073686,0.049775,-0.085865,
0.007051,0.065493,0.093207,0.047013,0.036967,0.056289,0.055216,0.061347,0.073512,0.043242,
0.038098,0.055981,-0.008052,0.019489,0.078999,-0.011168,0.047299,0.034259,0.102380,-0.029093,
-0.008780,0.027900,0.013681,0.034447,-0.045521,-0.048550,0.098557,0.024344,0.097757,0.064851,
-0.026916,-0.044430,0.044521,0.045649,-0.032266,0.084229,0.007733,-0.030382,0.009288,-0.001793,
0.045479,-0.005372,-0.021583,0.045002,-0.007612,0.080276,-0.054174,-0.037236,0.027831,0.018831,
0.088490,-0.010278,-0.055557,0.040698,-0.007055,0.037429,0.010923,-0.080856,0.020621,0.037335,
0.027615,-0.016580,0.058556,-0.061150,0.074376,0.029915,-0.050413,0.103516,-0.004407,0.065808,
0.109505,0.061134,0.034350,-0.011983,-0.039136,0.014499,0.073268,0.022700,0.017896,0.023174,
-0.059773,-0.039648,-0.018352,-0.042179,0.012538,-0.023691,-0.032329,0.004908,-0.039211,0.086729,
0.044010,-0.007602,0.079574,0.022061,0.064122,-0.027628,0.018390,0.069222,0.079698,-0.014195,
-0.060385,-0.021285,-0.006881,0.073658,0.052125,0.072934,0.052106,0.008155,-0.030441,0.060893,
0.007754,0.006813,0.068542,0.022001,0.072255,0.054795,0.031166,0.054268,-0.055770,0.059872,
0.024956,-0.011720,0.101700,0.033676,0.049596,0.044606,-0.058015,-0.012558,-0.053337,0.014507,
0.025907,0.100762,0.059327,-0.026170,0.050911,-0.007481,0.016186,0.082706,-0.043802,0.033175,
0.077408,0.013468,0.081060,-0.068369,0.059331,-0.057025,0.016021,-0.045077,0.072434,-0.066614,
0.009488,0.011472,-0.022391,0.050449,0.067171,-0.046728,-0.070137,0.023993,-0.061776,-0.066912,
0.054967,0.012507,-0.080057,-0.004617,0.011450,0.011572,0.015628,0.009338,-0.066664,-0.080700,
0.062333,-0.053543,0.080374,0.018917,0.027325,0.061482,-0.082368,0.017108,0.040330,0.029229,
0.034542,-0.035067,0.005819,-0.017842,-0.031041,0.059393,0.007999,0.051600,-0.050035,-0.035965,
0.051629,0.059258,-0.032927,0.040365,0.005592,-0.052855,-0.083879,0.010530,0.003945,0.035377,
-0.043496,-0.078640,-0.070983,0.004390,0.032534,-0.056230,0.018731,0.048664,-0.006205,-0.033029,
-0.074040,-0.049442,-0.020967,-0.078061,0.033869,0.030541,-0.005351,-0.057618,0.049055,0.012219,
0.036196,0.075469,0.009006,0.066683,-0.042662,-0.029176,-0.079780,-0.018214,-0.070574,0.030269,
0.027178,0.021481,0.074180,-0.051515,-0.076863,-0.053671,-0.017167,0.064805,-0.046975,0.060390,
-0.042558,-0.010893,0.078183,0.018590,-0.037574,-0.069376,-0.022540,-0.039787,-0.080563,-0.019272,
-0.078094,-0.034967,-0.037215,0.056442,-0.054463,0.030052,0.033025,0.009957,-0.067184,0.024675,
0.013932,-0.052675,-0.020128,-0.002846,0.037491,-0.063152,-0.061759,0.018377,-0.037993,-0.067281,
-0.032309,0.031293,-0.067631,-0.018247,0.067919,0.003739,0.075572,-0.080751,-0.082910,0.068466,
-0.012796,0.013309,0.046216,0.043918,-0.032442,0.054280,-0.057679,-0.005416,0.009583,0.063106,
-0.036526,-0.065508,-0.063310,0.003745,-0.018589,-0.005999,0.070699,0.040032,0.027226,-0.047643,
-0.038689,0.030119,-0.081324,0.064759,-0.028764,-0.060425,0.015538,-0.059073,0.052406,-0.040015,
0.034404,0.075726,-0.015061,0.043703,0.045280,-0.052854,-0.058262,-0.025579,0.068862,0.025950,
-0.053926,-0.037194,0.010389,0.031741,-0.018950,-0.008822,-0.047564,-0.043964,0.079607,0.014458,
-0.091368,-0.051570,-0.087816,0.065091,-0.047900,-0.047297,0.024118,0.011584,0.067500,-0.053995,
0.008148,-0.017629,0.054917,0.041925,-0.082178,0.034495,0.001194,0.011605,0.038043,-0.039205,
0.003998,0.024080,0.008710,-0.069880,-0.086019,-0.054201,0.052511,-0.057281,-0.062241,-0.018991,
-0.050166,-0.037474,-0.025954,-0.068162,0.052669,0.071539,-0.061452,0.009773,-0.076464,-0.042294,
0.059818,0.051054,-0.080871,-0.015200,-0.059188,-0.039523,0.062079,-0.054384,-0.043808,0.029791,
-0.023908,0.047113,0.064753,0.054584,0.060061,0.025888,0.006771,0.037321,0.056013,0.044236,
-0.000475,-0.081203,-0.000618,-0.066397,-0.015294,-0.023052,-0.038331,0.050163,0.032655,-0.035031,
0.042893,0.024153,0.046570,0.038046,0.035747,0.024731,-0.002077,-0.038211,0.040902,-0.049416,
-0.059381,0.066502,0.007680,-0.004942,0.062842,-0.065164,-0.008886,-0.017057,-0.041621,0.005405,
-0.043576,0.045454,-0.033874,0.055939,-0.066675,0.008373,-0.083394,-0.042311,0.035238,0.047021,
0.069155,-0.044341,-0.055470,-0.055932,-0.043690,0.066095,-0.045877,0.060872,-0.089219,0.064983,
-0.070013,0.070461,-0.002177,-0.088507,0.047268,-0.037164,0.003114,-0.032695,-0.060497,0.047061,
-0.000362,0.020547,0.057594,-0.051257,-0.010066,0.011750,-0.050983,-0.027526,-0.007283,-0.078037,
0.054093,-0.023121,-0.013391,0.002657,-0.059238,-0.015761,-0.080016,0.012366,0.004381,0.023711,
-0.076178,-0.028275,0.034767,-0.035427,-0.053003,-0.035014,-0.036781,0.024488,0.047608,0.034968,
-0.029332,0.037538,-0.051861,-0.013408,-0.073088,0.022989,-0.046518,0.000686,0.073445,-0.022640,
0.045082,-0.050997,0.002101,-0.023177,0.050864,-0.061973,0.013296,-0.083826,0.029229,0.001988,
-0.056283,-0.060565,0.008104,-0.045124,0.056087,-0.051636,0.043978,-0.050352,0.045447,-0.070178,
-0.068788,0.029006,-0.032121,-0.091966,-0.010178,0.012233,-0.006173,0.052539,0.060081,0.014463,
0.018263,-0.041172,0.034451,-0.068152,0.066022,0.010937,0.054806,-0.028358,0.052729,-0.047538,
0.027244,0.069954,0.040356,0.007083,0.039582,-0.016700,0.051943,0.062183,0.038018,0.015724,
0.058103,-0.028516,0.030033,0.045889,-0.001937,0.066804,0.055763,-0.013014,0.062677,-0.023489,
-0.059451,-0.079005,-0.020554,0.005622,0.005586,0.003681,0.027329,0.053104,-0.095765,-0.028874,
0.016070,0.029692,-0.043933,-0.047690,-0.066061,-0.080760,-0.027765,-0.027018,-0.043260,-0.025361,
0.001556,-0.077934,-0.058846,0.059409,0.028678,0.039777,-0.058984,-0.042084,};

const float layer_features_6_bias[32] PROGMEM = {
0.074937,0.052026,-0.054315,0.024067,-0.000176,0.013103,0.026383,-0.076878,-0.011598,0.082408,
0.045778,-0.040305,0.044956,0.079434,-0.009123,0.038915,-0.054931,0.053502,-0.055368,-0.080489,
-0.034858,0.018189,-0.061440,0.073912,0.033553,0.029275,0.028048,-0.037570,0.107525,-0.040100,
-0.076970,0.018980,};

const float layer_classifier_weight[800] PROGMEM = {
0.009218,-0.039746,-0.068312,-0.132700,0.078028,-0.002774,-0.019800,-0.108259,-0.032916,0.129003,
-0.035015,-0.100723,0.015853,0.176975,0.050837,0.027111,-0.079286,0.160164,0.143319,-0.098321,
0.079064,-0.049445,0.096072,-0.118593,-0.011928,0.006632,-0.077080,-0.071339,0.157871,0.025835,
0.128904,0.023834,0.108202,0.077940,0.139437,-0.075584,-0.120291,0.002817,-0.076500,0.058287,
0.147476,0.043047,-0.144537,-0.059206,0.088914,-0.067591,0.011395,-0.157347,-0.101001,-0.094229,
0.019543,0.033661,0.166710,0.048121,0.007130,0.139481,0.164614,0.006961,0.191973,-0.077161,
0.032238,0.029092,-0.094896,-0.031956,0.113947,-0.124554,0.087622,-0.191451,-0.017470,-0.013495,
0.007415,-0.165130,-0.112897,0.111909,0.086246,0.016192,0.181563,0.080912,-0.162202,-0.120076,
0.112744,0.123843,-0.053787,0.080716,-0.051040,-0.120305,0.026973,-0.007277,0.069849,0.083163,
0.005704,-0.063584,0.141419,0.133709,-0.097523,-0.041480,0.096100,0.069944,0.131835,-0.152635,
-0.079424,0.142368,-0.069901,0.097634,-0.154125,-0.147589,-0.123698,0.130701,-0.092375,0.149039,
-0.024101,0.028194,0.129946,0.159741,-0.069014,-0.126379,-0.026269,0.053725,0.101284,0.066250,
-0.124275,-0.161031,0.099404,-0.141915,0.029265,-0.002217,0.167665,0.056034,-0.090637,0.020042,
-0.104907,0.027530,0.099496,-0.047576,-0.166656,0.039461,0.067712,0.015306,-0.078420,0.015490,
-0.162061,0.150317,0.162262,-0.032622,-0.072723,0.083020,-0.183409,-0.068110,-0.045379,0.064799,
0.162934,-0.041093,-0.072880,-0.069196,-0.028268,-0.011309,0.093009,-0.171105,-0.064803,-0.128432,
-0.049008,0.153031,-0.025098,0.155680,0.037928,-0.146433,0.063467,-0.055492,0.069670,-0.051662,
0.066326,-0.053652,0.142975,0.080687,-0.131714,0.039757,-0.043336,-0.056670,-0.076850,0.050269,
0.101559,0.160373,-0.134273,-0.158315,0.121161,-0.009893,0.083968,-0.129828,-0.192335,0.004791,
-0.117164,-0.115312,0.024409,0.186953,-0.160081,-0.058516,0.121000,0.025178,0.104996,0.013416,
0.086861,0.062785,0.025766,-0.072712,0.030656,-0.113814,0.035727,-0.078641,0.013721,-0.087121,
-0.006783,0.154576,0.124537,-0.023525,-0.100395,0.147533,0.144085,0.013245,0.138721,0.156398,
-0.086541,-0.078382,-0.115233,-0.009410,0.068003,-0.102181,0.101913,0.140607,-0.127178,-0.019520,
0.063220,0.172504,0.022102,0.035330,0.049031,-0.048422,-0.155524,0.060244,-0.072741,-0.102427,
0.025841,0.121030,-0.051247,0.116842,-0.065095,-0.059111,0.080637,-0.030341,0.135383,-0.094822,
-0.046287,0.044003,0.142811,0.048533,0.144716,0.045337,-0.033813,0.174257,0.174611,-0.085088,
-0.156391,-0.050415,0.035416,-0.024921,0.114643,0.117563,-0.020894,0.005826,-0.065740,0.161125,
-0.120765,-0.137099,0.021287,0.041729,-0.029180,-0.069092,0.082629,-0.028984,0.087851,0.016730,
0.078123,0.004539,0.058181,0.124192,0.102279,-0.058572,0.082305,-0.018358,0.177252,0.026010,
-0.140239,-0.082009,-0.120995,-0.073816,-0.028652,-0.153310,-0.099525,0.014633,-0.158927,0.185623,
0.064083,0.042911,-0.128106,0.163823,-0.013875,0.102899,-0.079281,-0.081704,0.148989,-0.097682,
0.104073,-0.009676,0.170729,0.083618,0.084622,0.139764,-0.052469,-0.159296,0.044752,0.115672,
0.009207,0.140660,-0.172106,-0.158995,-0.187933,0.153224,0.009670,-0.032429,-0.185270,-0.013389,
-0.002725,-0.145114,0.125134,-0.020415,-0.180218,-0.174622,-0.104454,-0.187957,0.144033,-0.007589,
-0.112845,0.085460,-0.088011,-0.199670,0.130855,0.094381,0.053204,-0.002587,-0.024914,0.049725,
-0.120250,0.089806,0.161252,0.120034,-0.164556,-0.182669,-0.135294,-0.005961,0.025215,-0.088896,
-0.128479,0.093886,-0.125518,0.160642,0.145112,-0.012581,0.178370,-0.024467,0.143393,0.127428,
0.079755,0.080532,0.021403,0.026835,-0.100925,-0.080054,-0.057121,0.044933,0.082447,-0.116139,
-0.056289,-0.144630,0.091036,-0.040314,-0.039278,0.025710,0.014922,0.047930,-0.104486,0.013611,
0.153766,0.097434,-0.159680,0.049246,0.050797,0.065205,0.009623,-0.062438,-0.037075,-0.035949,
0.185351,-0.010741,0.151081,-0.085090,0.168959,-0.066529,-0.000291,0.068326,-0.075212,0.038521,
0.190848,-0.142352,0.160937,-0.072371,-0.101141,0.096973,0.137563,-0.046951,-0.100454,-0.076087,
-0.011339,-0.143625,-0.128638,-0.135325,0.050253,-0.113606,0.020487,-0.099371,-0.007103,0.005442,
0.061577,0.150359,-0.127064,0.025801,-0.055643,-0.016789,0.050935,-0.043787,0.090617,-0.089794,
-0.063154,-0.110153,-0.027933,-0.126313,0.104601,-0.153463,-0.143234,0.079169,0.049623,0.187412,
-0.167886,-0.043379,-0.130910,-0.150058,0.138566,-0.063076,-0.066523,0.052500,0.171793,0.077582,
0.138953,-0.158623,0.099966,0.044567,-0.159601,0.007992,0.056122,-0.127192,0.067369,-0.009371,
-0.087957,0.127776,0.056831,0.099504,0.110119,-0.073894,-0.109202,0.068054,0.100854,-0.109114,
-0.111049,0.070599,0.156752,-0.098532,-0.210624,0.004925,0.079443,0.058917,0.077149,-0.062135,
0.130403,0.129674,0.058885,-0.220284,-0.010311,-0.179583,0.044804,-0.184854,0.019531,-0.143388,
0.028296,-0.082976,0.067307,-0.204248,-0.024486,0.139445,-0.090247,0.150139,-0.195204,0.166696,
0.031851,-0.040409,0.053918,0.041938,-0.048988,-0.053388,-0.075040,0.152897,0.171483,-0.128721,
-0.006103,0.138123,-0.138419,0.093865,0.116730,-0.115949,0.071551,-0.015465,-0.164566,0.022395,
-0.006285,-0.001625,-0.129004,0.114316,0.141772,0.086170,0.146318,-0.122582,0.039040,-0.170358,
-0.057098,-0.142616,-0.010537,-0.121297,-0.028329,0.083731,0.093598,0.098799,0.049599,-0.136846,
-0.011538,0.151819,-0.107841,0.062282,-0.072429,-0.003721,-0.119223,0.071227,-0.201841,0.091890,
-0.104114,-0.108001,0.072044,-0.004792,-0.046422,0.077112,0.106895,0.133071,-0.123257,0.151750,
-0.002884,-0.065747,0.140161,-0.010983,0.131497,-0.065396,0.099417,0.135776,-0.006155,0.128978,
0.127834,-0.069871,-0.018054,0.110060,-0.074371,0.083844,0.002859,-0.089582,0.062129,-0.123121,
0.019751,0.075891,0.005999,-0.200959,-0.075911,-0.107119,0.078980,-0.069233,0.042063,0.000701,
0.062263,-0.120870,0.035473,-0.110499,-0.087210,0.084106,0.001766,0.049923,0.059363,0.011290,
0.085134,0.152272,0.098660,-0.127134,-0.087999,0.089069,0.128938,0.066922,0.059061,0.165607,
-0.096555,-0.083708,-0.146862,-0.132792,0.185724,0.096852,0.004955,-0.088301,-0.012501,-0.074404,
-0.035883,0.127217,-0.070298,0.030970,-0.138237,0.124312,0.135955,0.062076,0.109178,-0.137487,
-0.174713,0.055991,-0.049594,-0.164973,-0.171168,-0.077102,-0.004090,-0.016205,0.135770,-0.243230,
0.101563,-0.087830,-0.062460,-0.115072,-0.191176,-0.250217,-0.052727,-0.140999,-0.122793,0.137398,
-0.004009,0.148417,0.078299,-0.203006,0.142813,0.150510,0.049779,0.136553,-0.108804,0.152020,
-0.005471,-0.044645,0.171934,0.036170,0.039349,0.161214,0.079835,0.074334,-0.126870,0.153886,
0.156466,-0.052751,0.156859,0.035462,-0.164852,0.175748,0.124022,-0.002828,0.042512,-0.069926,
0.091527,0.161224,-0.110879,-0.089502,0.036183,0.046310,-0.097568,0.097626,-0.078976,0.170455,
-0.077908,-0.131462,0.152850,0.127380,0.080562,0.183507,-0.127098,0.202537,-0.133763,0.131915,
0.175151,0.128566,0.114288,0.078637,0.002652,0.120107,0.104326,-0.124178,0.097897,0.085247,
0.045195,-0.036038,0.011107,0.119924,0.028394,0.137780,0.120168,0.042658,0.065579,0.154066,
-0.096216,0.062177,0.071249,-0.142204,-0.112629,0.061221,0.206975,-0.116891,-0.096090,-0.012369,
-0.061313,0.172350,0.020231,-0.088027,0.098801,0.055215,0.135622,-0.052268,-0.089504,-0.129290,
-0.122491,0.173649,0.014302,0.045401,0.010055,0.092656,0.065559,-0.026534,0.133480,-0.041485,
0.079889,0.063669,0.058612,0.023542,-0.047920,-0.157274,0.181391,-0.004740,0.013880,0.151752,
0.031860,0.077181,0.134848,0.105681,0.073509,0.052388,0.067156,-0.062999,-0.144082,0.016016,
-0.102385,0.001412,-0.128806,0.081520,0.130667,0.004659,-0.027989,0.105234,0.162084,-0.126317,
0.027932,0.120059,0.015345,-0.148872,0.067174,0.007156,-0.121338,0.075613,0.053257,0.140549,
};

const float layer_classifier_bias[25] PROGMEM = {
0.124408,0.075468,-0.085763,0.000366,0.136213,0.070443,-0.001200,0.194798,-0.026466,0.033969,
-0.059044,-0.074227,-0.100341,0.055536,-0.042377,-0.032152,0.046370,0.097595,0.061394,-0.147241,
-0.106441,0.193595,-0.027796,-0.027296,0.155678,};

#endif
